#pragma once

#include <CUNET.h>

namespace cunet
{
    class LenGen
    {
        public:
        LenGen()
        {
           float weight0[] = {0.42790186405181885, 6.586785793304443, 0.00031685468275099993, 3.8875231742858887, 0.7984638810157776, 4.842013835906982, 0.0003307697188574821, 4.166181564331055, 0.8059333562850952, -11.512455940246582, 2.843094443960581e-05, -2.3402602672576904, 0.642967939376831, -4.756034851074219, 0.00028421575552783906, 0.08302505314350128, 0.10477077960968018, -8.543766975402832, -0.0003014373651240021, -3.5327093601226807, -1.1090130805969238, -3.1678948402404785, -8.110731141641736e-05, -2.55440616607666, 0.3808380365371704, 4.6306304931640625, 5.500518454937264e-05, 2.5896379947662354, -1.0776984691619873, -2.3563621044158936, 3.4018194128293544e-06, -2.1837759017944336, };
           float bias0[] = {-2.230422019958496, -2.150867462158203, -9.123761177062988, -3.5539193153381348, 3.4648051261901855, 2.386651039123535, -0.7119079232215881, 1.6463900804519653, };
           linear2 = Linear<float>(4, 8, weight0, bias0);
           softplus3 = Softplus<float>();
           float weight2[] = {-0.7604272961616516, 0.053112152963876724, 0.08167284727096558, -0.4048207700252533, -0.148598775267601, 1.7286598682403564, -0.1395338624715805, -2.9067330360412598, -0.8839142918586731, 0.07301413267850876, 0.12172002345323563, 0.5571724772453308, 0.6882210373878479, -0.7799477577209473, -0.5536839365959167, -1.4012683629989624, -0.42579689621925354, -0.6361481547355652, -0.10232588648796082, -0.36355695128440857, -0.27395325899124146, 0.4099791646003723, 0.9065895676612854, 0.6060180068016052, 0.6505935192108154, -1.3934282064437866, -0.19986505806446075, -0.13747841119766235, -0.15249118208885193, 0.08974552899599075, 0.007242019288241863, 0.8514580726623535, -0.22608943283557892, -0.4399826228618622, 0.6248905062675476, 0.12264629453420639, 0.5870312452316284, -0.921474814414978, -0.5205751657485962, -1.7245988845825195, 0.5388416647911072, -2.576019048690796, -0.40997281670570374, -0.23840516805648804, -0.31897953152656555, -0.41506311297416687, 0.8118826746940613, 2.5764811038970947, -1.3240838050842285, -0.2746959328651428, 0.4860735833644867, 0.930097222328186, 1.1556097269058228, -1.7827157974243164, -0.8648524880409241, -2.2602880001068115, 0.8187994360923767, -2.7261605262756348, 0.10156546533107758, 0.025256074965000153, -0.08417387306690216, 1.9420963525772095, 0.6531364321708679, -2.3789479732513428, };
           float bias2[] = {0.15731213986873627, 2.2567546367645264, -0.24360845983028412, 1.8717960119247437, -1.63096022605896, -1.2175946235656738, -0.6543901562690735, -2.587902069091797, };
           linear4 = Linear<float>(8, 8, weight2, bias2);
           softplus5 = Softplus<float>();
           float weight4[] = {-0.09413354098796844, -0.37625256180763245, 0.12582996487617493, 0.21243321895599365, 1.148971438407898, -0.006605370435863733, -0.7378689646720886, 0.5029112100601196, -5.261305809020996, 1.3366901874542236, 5.763893127441406, 1.9725351333618164, 4.026564598083496, -12.702315330505371, -1.3359440565109253, 12.92909049987793, 1.1589345932006836, 0.048875920474529266, -0.00300996215082705, -0.7098996043205261, -0.024628771468997, 0.226942241191864, -0.0338086374104023, 0.46822378039360046, -0.2172226905822754, -0.6718104481697083, -0.3288544714450836, -0.1932644098997116, -1.4243919849395752, 0.42611798644065857, 1.1680214405059814, 0.05065502971410751, -0.19663354754447937, 0.0919710174202919, 0.3910311758518219, 0.5026841163635254, -0.5981367230415344, -8.514678001403809, 0.2729232907295227, 16.29815673828125, 1.3215086460113525, 0.1949002742767334, -0.20024344325065613, 0.37908491492271423, 2.700890302658081, -0.15772007405757904, -0.6211419701576233, 0.31473228335380554, -0.26201966404914856, -0.09343551099300385, -0.44449687004089355, -0.3682648837566376, 0.3215048313140869, 0.33383089303970337, -0.03142697736620903, -0.44964540004730225, 1.066894769668579, 0.19060879945755005, 0.054916247725486755, -0.4758443534374237, 0.9309765100479126, 0.08879299461841583, -1.7635955810546875, 0.791461706161499, };
           float bias4[] = {0.2862079441547394, -0.9681631922721863, -0.00037531869020313025, 3.6049246788024902, 0.7217650413513184, -1.2132972478866577, 0.0025038826279342175, -0.9262992739677429, };
           linear6 = Linear<float>(8, 8, weight4, bias4);
           softplus7 = Softplus<float>();
           float weight6[] = {0.2603532075881958, -0.011515307240188122, 0.5964866876602173, -0.14025789499282837, 0.4411759078502655, 0.062018852680921555, 0.6347392797470093, -0.8602408170700073, -0.5690192580223083, 3.793337345123291, -1.6711688041687012, -1.5550044775009155, -2.7992782592773438, -5.89551305770874, -3.697458028793335, 9.46962833404541, };
           float bias6[] = {-0.09052713960409164, -8.172646522521973, };
           linear8 = Linear<float>(8, 2, weight6, bias6);
        }

        __device__
        void operator()(float* input, float* output)
        {
            float temp_output0[8];
            linear2(input, temp_output0);
            float temp_output1[8];
            softplus3(temp_output0, temp_output1, 8);
            float temp_output2[8];
            linear4(temp_output1, temp_output2);
            float temp_output3[8];
            softplus5(temp_output2, temp_output3, 8);
            float temp_output4[8];
            linear6(temp_output3, temp_output4);
            float temp_output5[8];
            softplus7(temp_output4, temp_output5, 8);
            float temp_output6[2];
            linear8(temp_output5, output);
        }

        private:
        Linear<float> linear2;
        Softplus<float> softplus3;
        Linear<float> linear4;
        Softplus<float> softplus5;
        Linear<float> linear6;
        Softplus<float> softplus7;
        Linear<float> linear8;
    }; // class
} // namespace cunet