#pragma once

#include <CUNET.h>

namespace cunet
{
    class ScatGen
    {
        public:
        ScatGen()
        {
           float weight0[] = {-0.07725363969802856, 0.04836733266711235, 0.09732905775308609, -0.07255014777183533, 0.015724996104836464, -0.001876239781267941, -0.005759985651820898, -4.443454236024991e-05, 0.1457240879535675, -0.0001299878058489412, 3.901826494256966e-05, 9.921246237354353e-05, 0.00011851521412609145, -0.4964383542537689, -0.566048800945282, 0.01703352853655815, -0.4187716543674469, 0.004778689704835415, 0.010591582395136356, 0.00021352636395022273, -1.4749081134796143, -8.638943427285994e-07, 7.796724094077945e-05, -0.00014509701577480882, 0.13831904530525208, 0.13764387369155884, 0.3014906346797943, -0.1435670107603073, 0.09314138442277908, 0.0006908409995958209, 0.0023824770469218493, 6.655116885667667e-05, 0.6852538585662842, 3.9731407014187425e-05, -1.810184221540112e-05, 7.284939783858135e-05, 0.09737315028905869, 0.06479384005069733, 0.11874626576900482, -0.05527816712856293, 0.04834296554327011, 0.0010088073322549462, 0.0022201358806341887, 4.901947704638587e-06, 0.31539636850357056, 3.940238821087405e-05, -1.3170186718980403e-07, 4.7932713641785085e-05, 0.0006336391670629382, -0.08875024318695068, -0.18464665114879608, 0.15459096431732178, -0.035211097449064255, 0.00042668505921028554, 0.003424168098717928, 5.880056505702669e-06, -0.38950979709625244, -4.080909275216982e-05, -3.233302413718775e-05, -7.449251279467717e-05, 0.2597232758998871, 0.012770084664225578, -0.036208655685186386, 0.13239184021949768, 0.06369558721780777, 0.004040969535708427, 0.007244382984936237, 9.210346433974337e-06, 0.08563421666622162, 4.3580203055171296e-05, 6.282081358222058e-06, -0.00010785579797811806, -0.0005153825040906668, 0.00459778867661953, -0.013982121832668781, 0.012673947960138321, 0.009145202115178108, 0.0006497497670352459, -0.005350172985345125, -1.7507652955828235e-05, -0.0412595197558403, 7.150370947783813e-05, -5.7254932471551e-05, -9.688744285085704e-06, -0.07532789558172226, -0.06848142296075821, -0.15977518260478973, 0.09111682325601578, -0.03985893726348877, -0.0005332012660801411, -0.002134656999260187, -4.451950007933192e-05, -0.3680347502231598, -0.00010260423005092889, -3.3352496302541113e-06, 2.3428949134540744e-05, 0.1205035075545311, -0.05218278244137764, -0.11803843080997467, 0.17559969425201416, 0.01058429479598999, 0.0017024973640218377, 0.007656740956008434, 0.00021944088803138584, -0.16934560239315033, 0.0003021493321284652, -0.00015010435890872031, -0.0001505672262283042, 0.008789511397480965, -1.7230772972106934, -3.5506784915924072, 2.2994635105133057, -0.8336316347122192, 0.02443275786936283, 0.0261368565261364, -8.244435593951494e-05, -7.974001407623291, -0.00010577622015262023, -9.939966730598826e-06, -6.597734318347648e-05, 0.0011592296650633216, -0.044929422438144684, -0.12696436047554016, 0.0007299324497580528, -0.047592900693416595, 0.00040128701948560774, 0.005984128452837467, -4.4389562390279025e-05, -0.1707669198513031, -3.859457865473814e-05, -3.203565574949607e-05, 3.486379864625633e-05, 0.007337679620832205, -0.30669763684272766, -2.528066873550415, -0.17470744252204895, 1.5473228693008423, 0.01555600669234991, 0.01672600768506527, 9.440168469154742e-06, -5.27360725402832, 0.0001944762043422088, -0.00020461255917325616, 2.0381245121825486e-05, };
           float bias0[] = {-0.7440616488456726, -0.2605203092098236, 2.2566921710968018, 0.25213345885276794, 0.10633042454719543, 0.22614048421382904, 0.3781970739364624, -0.49538663029670715, -0.4115900993347168, -1.8507130146026611, -0.48371073603630066, -3.308776617050171, };
           linear2 = Linear<float>(12, 12, weight0, bias0);
           softplus3 = Softplus<float>();
           float weight2[] = {-0.17396847903728485, -0.4150240421295166, -0.32968103885650635, -0.2289617657661438, -0.10828346759080887, 0.025020495057106018, 0.07417815923690796, -0.0873161032795906, 0.0556340329349041, -1.249477505683899, 0.167317196726799, -0.38449859619140625, -18.228654861450195, -3.0546677112579346, 0.4692147374153137, 0.15637609362602234, -1.235000729560852, -0.4735715091228485, -1.237230896949768, 0.9432896375656128, -0.6991409063339233, -0.00643848767504096, -0.6907110810279846, -20.256242752075195, -0.29422879219055176, 0.08004729449748993, -0.3427693545818329, 0.02267860248684883, -0.49707692861557007, 0.3197851777076721, -0.372968852519989, 0.32835033535957336, -0.3119174838066101, 0.5069767832756042, -0.3101107180118561, -0.5244287252426147, 0.00028413644758984447, -0.5301130414009094, -0.18674838542938232, -0.37050190567970276, -0.5712620615959167, -0.009485900402069092, 0.07885190099477768, 0.2321634739637375, 0.09595827013254166, -1.4663535356521606, 0.21705690026283264, 0.09022253751754761, -0.0726412683725357, 0.1272149235010147, -0.253200501203537, 0.08586259186267853, -0.43036553263664246, 0.00042535774991847575, -0.4818248152732849, -0.24948634207248688, 0.22309114038944244, -0.7757457494735718, -0.23659415543079376, 0.1807803362607956, -0.5442395210266113, 0.6368771195411682, -0.2909242510795593, -0.23842723667621613, -0.11330483108758926, 0.13468965888023376, -0.46724367141723633, 0.23188215494155884, 0.24395957589149475, 0.18445540964603424, -0.2785641551017761, -0.31259238719940186, -0.14602753520011902, -0.22125212848186493, 0.26354166865348816, -0.021863097324967384, -0.17637692391872406, -0.21929585933685303, 0.6807444095611572, 0.06959784030914307, 0.18494385480880737, -0.48998165130615234, 0.2843906581401825, 0.5680294632911682, 0.027017993852496147, -0.040646448731422424, -0.3278283476829529, 0.3588128983974457, -0.697166383266449, -0.1922534555196762, -0.2998066842556, -0.17921938002109528, 0.5022163987159729, -2.8209609985351562, -0.014665757305920124, 0.6813174486160278, 0.23442022502422333, -0.4422813653945923, -0.4639536440372467, 0.15205159783363342, -0.9055673480033875, 0.07510755211114883, -0.2149585783481598, -0.6916010975837708, -0.14516083896160126, -0.6714367270469666, -0.04828912392258644, 0.31748324632644653, 0.008274967782199383, 0.01657065749168396, -0.5027396082878113, -0.4622969627380371, -0.2280881404876709, -0.7658446431159973, -0.38431206345558167, 0.25394827127456665, -0.5023362040519714, -0.49482405185699463, 0.04954935237765312, 0.5103756785392761, 0.2772394120693207, -0.7225097417831421, -0.4888109266757965, -0.46972227096557617, -1.043308973312378, -0.005531209520995617, -0.5328230857849121, -0.14749927818775177, 0.1292937695980072, -0.21690437197685242, -0.4742617607116699, 0.47887319326400757, -0.4276143014431, 0.0439332015812397, -0.0461968332529068, 0.461034893989563, -0.07683674991130829, -0.33080047369003296, 0.5358613133430481, -0.5313624143600464, 0.39364108443260193, -1.5277764797210693, 0.010939270257949829, 0.7867373824119568, };
           float bias2[] = {-1.2372881174087524, -0.14970456063747406, -0.34912633895874023, -0.31048229336738586, 0.2353171855211258, 0.5359477996826172, 0.7608766555786133, -0.6836810111999512, -0.6668040752410889, -0.3261963129043579, -0.7026558518409729, -0.5493797063827515, };
           linear4 = Linear<float>(12, 12, weight2, bias2);
           softplus5 = Softplus<float>();
           float weight4[] = {0.21902890503406525, -0.36785319447517395, -0.41141748428344727, -0.060549791902303696, -0.07532000541687012, -0.07012911885976791, 0.06653834134340286, 0.5382718443870544, 0.21179290115833282, 0.21630799770355225, -0.025880834087729454, 0.03772431239485741, 0.28652849793434143, -0.005355630535632372, 0.4330669045448303, -0.31600192189216614, 0.1211945191025734, 0.14392352104187012, -0.42826616764068604, -0.18924014270305634, -0.3532326817512512, -0.529129147529602, 0.0886421799659729, -0.10983561724424362, 0.17783476412296295, -0.03191537410020828, -0.1482059806585312, 0.05982884764671326, -0.47430989146232605, 0.2971692979335785, -0.2884941101074219, -0.28980809450149536, 0.25509876012802124, 0.018479395657777786, 0.28887248039245605, 0.19117599725723267, -0.3195807635784149, 0.154960036277771, 0.1799827367067337, 0.017396606504917145, -0.317266583442688, -0.5295470952987671, -0.24976876378059387, -0.08864422142505646, 0.4479372203350067, 0.05581040680408478, -0.01918836683034897, 0.4771019220352173, 3.999606132507324, -23.871763229370117, -0.003378067398443818, 0.5773319602012634, 3.7101025581359863, 0.10035718232393265, -3.088207721710205, -6.668264389038086, 4.649938583374023, -4.463675498962402, 5.243325710296631, -54.97929382324219, 0.7391921877861023, -2.1825337409973145, 0.21235136687755585, -0.23127484321594238, -0.769585907459259, -1.510346531867981, -1.9660327434539795, 0.19797278940677643, 0.5406383275985718, 0.6812654137611389, -0.05544549226760864, -1.7324903011322021, 0.4710226058959961, 1.1696704626083374, -0.2770107686519623, 0.6762986183166504, 0.18107570707798004, -0.139884352684021, -0.25870272517204285, -0.1772518903017044, 0.677604615688324, -0.35191547870635986, 0.28926998376846313, -5.401785373687744, 0.06016834080219269, 0.5246770977973938, 0.05374468117952347, -0.12974461913108826, 0.04578409343957901, -0.7208296060562134, 0.20087085664272308, -0.10517524182796478, 0.2782112956047058, 0.7640256881713867, -0.1477656066417694, 3.5141382217407227, -0.1649053543806076, 0.10278778523206711, 0.22192727029323578, -0.017743263393640518, 0.09068941324949265, 0.181325763463974, -0.0024792056065052748, -0.05963613837957382, -0.4379419982433319, -0.20212125778198242, -0.16314351558685303, 0.3790985345840454, 0.340213418006897, 0.1028878390789032, 0.1167757660150528, -0.3096729815006256, -0.5733298659324646, 0.2825695872306824, -0.35796719789505005, -0.1994432955980301, -0.12815454602241516, -0.16737934947013855, 0.22314661741256714, 0.10974262654781342, -0.10561519116163254, -0.02591826394200325, -0.0689333900809288, -0.10112936794757843, 0.021033907309174538, -0.2030581831932068, 0.15731269121170044, 0.347164124250412, -0.3304494023323059, 0.2594960033893585, -0.14474321901798248, 0.8446452021598816, 0.30399397015571594, -0.8238873481750488, -0.16932065784931183, 0.21271753311157227, 2.068744659423828, -0.48286885023117065, 0.6235791444778442, 0.5107948780059814, -0.022114703431725502, -0.32708317041397095, -0.2889242172241211, -4.379906177520752, };
           float bias4[] = {-0.1474623829126358, 0.004130720626562834, -0.2631262242794037, 0.03622579947113991, -0.22668230533599854, 0.7829053997993469, -0.1327735334634781, 0.6940874457359314, -0.4886090159416199, 0.13789480924606323, -0.22494849562644958, 0.1321134865283966, };
           linear6 = Linear<float>(12, 12, weight4, bias4);
           softplus7 = Softplus<float>();
           float weight6[] = {0.33552902936935425, 0.07475961744785309, -0.5049867033958435, 0.09901934117078781, 0.1683020293712616, -1.5365084409713745, 0.41698259115219116, -0.055551521480083466, -0.4237616956233978, 0.16285328567028046, -0.02929375320672989, -0.21567507088184357, 0.16588473320007324, -0.2946241796016693, -0.17510680854320526, -0.02081061713397503, -0.11123791337013245, 0.8134939074516296, -0.2383980005979538, 0.06824527680873871, 0.2796405851840973, 0.506209135055542, -0.2490691989660263, 0.11911579221487045, 0.00625045457854867, 0.021568290889263153, -0.1775294691324234, -0.13768082857131958, -1.628212332725525, 0.7431944012641907, 0.3827536106109619, 0.06629091501235962, -0.16349855065345764, 0.29313981533050537, -0.08464024215936661, 0.01654917001724243, -0.3259386122226715, 0.1557433158159256, 0.08012790977954865, -0.3247015178203583, -0.3499593734741211, 1.1394500732421875, -0.2532469928264618, 0.08241872489452362, -0.1256682127714157, -0.0513429269194603, -0.06476552784442902, 0.1181359514594078, 0.017878154292702675, -0.01612010784447193, -0.01958996243774891, 0.004441906698048115, 0.0018465187167748809, 0.014400871470570564, -0.0018297206843271852, 0.0009325186256319284, 0.023134158924221992, 0.017438162118196487, -0.015472608618438244, 0.0007557704811915755, -0.06606469303369522, -0.09772294759750366, 0.09533433616161346, -0.17779065668582916, -3.280881881713867, 0.4317561686038971, -0.38813316822052, 0.1538318246603012, -0.1923900693655014, 0.8041480183601379, -0.16242730617523193, 0.2649543881416321, -2.4114842414855957, -0.9334148168563843, -0.7192424535751343, 3.3213789463043213, 2.6754417419433594, 2.0243117809295654, 9.454731941223145, -6.657403945922852, -2.6438779830932617, -1.0404521226882935, -4.0447235107421875, 3.037534713745117, -1.878778100013733, -0.42135900259017944, -0.7382324934005737, 4.49854850769043, 3.0648066997528076, 1.6387094259262085, 9.63598346710205, -8.326617240905762, -1.6257860660552979, -2.809770345687866, 0.24343721568584442, 2.564002513885498, 1.4569188356399536, -1.4176069498062134, -4.8593430519104, 6.3361663818359375, 5.542690277099609, 36.35298156738281, -21.942707061767578, -7.117727756500244, -2.049532175064087, -2.380603075027466, -6.431103706359863, 16.967714309692383, -1.993607759475708, -1.11711847782135, -0.8598679900169373, 2.2012171745300293, 4.023894786834717, 3.6625568866729736, 10.7779541015625, -6.155977249145508, -2.6017701625823975, -0.5051860809326172, -2.0058445930480957, 2.367748260498047, -1.0244616270065308, -0.5825105309486389, -1.2619495391845703, 4.774292469024658, 5.111650466918945, 2.4868085384368896, 11.806697845458984, -6.534493923187256, -3.236992597579956, -0.5207823514938354, -1.2346802949905396, 2.8127503395080566, -1.1022387742996216, -1.9044594764709473, -2.0210320949554443, 0.3850845694541931, 5.964321613311768, 22.64557647705078, 3.477997303009033, -3.9400646686553955, -2.5095908641815186, -2.751540184020996, -0.9638895392417908, -4.267812252044678, };
           float bias6[] = {0.3514018654823303, -0.32458314299583435, -0.03878471627831459, 0.1662493348121643, -0.01068415679037571, 0.5053911805152893, 2.752920627593994, 1.68656325340271, 2.357503890991211, 0.6359677314758301, -1.6498260498046875, 1.2500102519989014, };
           linear8 = Linear<float>(12, 12, weight6, bias6);
        }

        __device__
        Tensor<float>& operator()(Tensor<float>& x)
        {
            x = linear2(x);
            x = softplus3(x);
            x = linear4(x);
            x = softplus5(x);
            x = linear6(x);
            x = softplus7(x);
            x = linear8(x);
            return x;
        }

        private:
        Linear<float> linear2;
        Softplus<float> softplus3;
        Linear<float> linear4;
        Softplus<float> softplus5;
        Linear<float> linear6;
        Softplus<float> softplus7;
        Linear<float> linear8;
    }; // class
} // namespace cunet