#pragma once

#include <CUNET.h>

namespace cunet
{
    class ScatGen
    {
        public:
        ScatGen()
        {
           float weight0[] = {0.0009665910038165748, -0.36042943596839905, -0.26612192392349243, -10.755932807922363, 0.6079839468002319, -0.006802910938858986, -0.014753682538866997, 0.00028582647792063653, 0.0001517418713774532, 4.018350601196289, -0.0003912875254172832, -0.00016335213149432093, -0.00016985207912512124, 0.05592420697212219, 0.050762612372636795, 0.15549224615097046, 1.5762100219726562, 0.0007325491751544178, 0.002058635000139475, 8.87987971509574e-06, -0.00013532917364500463, -0.6348887085914612, 0.0001149255404016003, -9.929046063916758e-05, 0.0011010400485247374, -0.4121840298175812, -0.3061774969100952, 1.1336442232131958, -0.21120397746562958, -0.008560114540159702, -0.016949506476521492, 0.0003635750326793641, 0.00012015463289571926, 4.585722923278809, -0.00036259772605262697, -0.000255716237006709, 5.220089224167168e-05, -0.01594642736017704, -0.013447006233036518, 0.2383539229631424, 0.8443329334259033, -0.00031763772130943835, -0.0007034952286630869, 6.318287341855466e-05, -3.815870513790287e-05, 0.17765988409519196, 2.9848133635823615e-05, -5.189443254494108e-05, -0.000663005921524018, 0.22419576346874237, 0.1649235635995865, -1.243604302406311, 0.691105306148529, 0.005201930180191994, 0.009973482228815556, -0.00018972916586790234, -1.189024987979792e-05, -2.5772933959960938, 0.00022317176626529545, 0.00021909011411480606, -0.0020796633325517178, 0.9015555381774902, 0.76688551902771, -1.9318140745162964, -0.33764636516571045, 0.01626008190214634, 0.030464349314570427, -0.0016058465698733926, -0.00038895985926501453, -9.814117431640625, 0.0007675880915485322, 0.0006787075544707477, 0.00044385530054569244, -0.14458487927913666, -0.1100148856639862, 0.30721592903137207, -2.1860337257385254, -0.0027122534811496735, -0.006046111695468426, 6.554111314471811e-05, 6.116801614552969e-06, 1.7516958713531494, -3.105226278421469e-05, -0.00013439248141366988, -1.20339791465085e-05, 0.004604261368513107, 0.0023433605674654245, -3.271944284439087, 3.226715087890625, 4.108190842089243e-05, 0.0002277343737659976, -3.908856160705909e-05, 3.703097172547132e-05, -0.046080153435468674, -2.3147795218392275e-05, 4.276218169252388e-05, -0.0008798891212791204, 0.33640971779823303, 0.26288002729415894, -0.7640044689178467, 0.04951820150017738, 0.0058542052283883095, 0.013013342395424843, -0.0004124397237319499, -0.00018000051204580814, -3.703256845474243, 0.00028724587173201144, 0.00013568898430094123, 0.0007965118275023997, -0.29364681243896484, -0.2153947800397873, 0.9793476462364197, -0.0010113943135365844, -0.005342699121683836, -0.01236670184880495, 0.00037264489219523966, -3.203853339073248e-05, 3.2994656562805176, -0.00022725849703419954, -0.00029470177832990885, 0.0008352166623808444, -0.35396870970726013, -0.22907529771327972, -3.4642457962036133, 1.8402595520019531, -0.006307492032647133, -0.013484815135598183, 0.00031754293013364077, 1.6192916518775746e-05, 3.5950849056243896, -0.0004111318849027157, -0.00013507874973583966, -6.608392868656665e-05, 0.02353525161743164, 0.016470501199364662, -1.8566902875900269, -0.7218679189682007, 0.0004496122128330171, 0.0010829295497387648, -5.4117579566081986e-05, 4.497555710258894e-05, -0.28005802631378174, -2.209308377132402e-06, 7.54220673115924e-05, };
           float bias0[] = {5.495736598968506, -0.4998469054698944, 1.557831883430481, 2.6134707927703857, 1.2980494499206543, 2.5860822200775146, -0.9949509501457214, -0.018580300733447075, 2.3994340896606445, 1.6892950534820557, -3.9633610248565674, 1.121485948562622, };
           linear2 = Linear<float>(12, 12, weight0, bias0);
           softplus3 = Softplus<float>();
           float weight2[] = {-0.1364985853433609, -0.014932242222130299, 0.23271384835243225, 0.053586430847644806, -0.07888507843017578, -0.03104420006275177, 0.40336140990257263, 0.16217094659805298, 0.13346704840660095, 0.21134090423583984, 0.2351461946964264, -0.1846001148223877, 0.9992470145225525, -0.7797471284866333, -0.2016024887561798, -1.0605926513671875, 0.27667108178138733, -0.8245097398757935, 0.008405636064708233, -0.413639634847641, -1.2368040084838867, -0.6088488101959229, -0.0344151072204113, -2.1256799697875977, -5.918325424194336, -0.11321541666984558, 3.734498977661133, 1.0000605583190918, -0.772093653678894, -3.764770984649658, 1.1897251605987549, 0.1739540845155716, -1.4886506795883179, 2.2181901931762695, 0.22716738283634186, 0.15818198025226593, -3.7334165573120117, -1.077468752861023, 1.5617026090621948, 0.14788393676280975, 1.035086750984192, -1.8481942415237427, -0.01952936127781868, -4.227457046508789, 0.41430985927581787, 1.3470877408981323, 3.008174419403076, 2.9450597763061523, -0.5235850214958191, -0.49534061551094055, 0.13994023203849792, -0.4893862009048462, 0.03141358122229576, -15.119537353515625, 0.05581623688340187, -0.8718063831329346, 0.031820617616176605, 0.40865373611450195, 0.2268008589744568, 1.2009656429290771, -2.686504364013672, 0.13948974013328552, 1.6375925540924072, -0.795519232749939, -0.8423947095870972, -3.548693895339966, 0.9381252527236938, 0.7096918821334839, -0.14602285623550415, 1.2747060060501099, 0.7003337740898132, 0.34537091851234436, 0.6480562090873718, 2.634161949157715, -1.0237401723861694, -0.7364226579666138, -3.1839475631713867, 0.24374578893184662, 0.9597769975662231, 0.4369817078113556, -1.4769331216812134, 0.24259424209594727, 0.38964903354644775, 1.5420821905136108, -2.5742297172546387, 0.302447646856308, 1.7880655527114868, 0.2727145552635193, -0.6345345377922058, -1.4010555744171143, 0.9555560946464539, -1.3068889379501343, -1.2033143043518066, -0.1346779465675354, -2.351560592651367, -0.20335820317268372, -3.070298194885254, 0.34000611305236816, 1.8376367092132568, 0.7710853815078735, -0.8823713064193726, -1.7619107961654663, 0.9679850339889526, 3.698613166809082, -0.9238353967666626, 0.40845996141433716, -0.9055072665214539, -3.191559314727783, 0.1443030685186386, 0.09826406836509705, -0.49425023794174194, -0.5679506063461304, 0.1648000180721283, -0.3156426250934601, -0.21306882798671722, -0.02622893452644348, 0.6531772613525391, -0.3023802638053894, 0.6871103644371033, -0.35561734437942505, -3.965660572052002, 0.5651090741157532, 1.703142523765564, -0.3958832621574402, -0.05258239805698395, -0.3840921223163605, 0.6584479808807373, -0.6092336773872375, -0.14415466785430908, 0.6594898700714111, 2.3571135997772217, -2.443197011947632, -0.13890473544597626, -0.21190935373306274, 0.5622818470001221, 0.9233412742614746, -0.28180792927742004, 0.315986305475235, 0.07030230015516281, -0.11670132726430893, -0.4945914149284363, 0.4654947519302368, -0.3739415407180786, 0.8232378959655762, };
           float bias2[] = {1.6141337156295776, -1.8295894861221313, 1.9976956844329834, -2.1921932697296143, -3.091658353805542, -1.15562105178833, -1.0869426727294922, 0.2861296832561493, -2.6098196506500244, -0.5461814403533936, -1.7266182899475098, 1.5765056610107422, };
           linear4 = Linear<float>(12, 12, weight2, bias2);
           softplus5 = Softplus<float>();
           float weight4[] = {-0.2714351415634155, 3.1595687866210938, -0.499939501285553, 0.5204200744628906, 0.2187344878911972, -0.9953643679618835, 0.8805599212646484, 0.2986711859703064, 1.2231913805007935, 1.2191107273101807, 0.364010751247406, -0.3629961311817169, -1.530905842781067, 2.285829544067383, -1.6644777059555054, 0.09301317483186722, 4.617549896240234, 1.8556374311447144, 1.0731723308563232, -3.1583168506622314, 5.59933614730835, 0.5770460963249207, -2.7099263668060303, -0.6737156510353088, -0.8288136124610901, 2.985227346420288, -1.2825889587402344, 1.0598341226577759, 2.485462188720703, -0.5444524884223938, 1.3542088270187378, -0.40258556604385376, 1.8660229444503784, -1.5129681825637817, 1.2935850620269775, -0.45260313153266907, -0.3187863528728485, 3.1972436904907227, -0.8165323734283447, 0.5621803402900696, -0.88381028175354, -0.913527250289917, 0.7328371405601501, 0.5505924820899963, 1.616321325302124, 2.474064588546753, 0.37395578622817993, -0.22399906814098358, -2.398069381713867, 5.937508583068848, 1.1064649820327759, -0.2010473906993866, 4.500030040740967, -0.5315558910369873, 1.325756549835205, 0.27514612674713135, -0.19740816950798035, -9.242830276489258, -1.4869427680969238, -0.7424605488777161, 0.36185604333877563, -2.6551849842071533, 0.27467072010040283, 0.5180017948150635, -1.9594968557357788, 0.40237364172935486, 2.0494425296783447, 0.02839682251214981, -0.07962483167648315, -0.3097541928291321, -0.8858103156089783, -1.268502116203308, -0.33901193737983704, -6.435770034790039, 0.14987802505493164, -1.1312810182571411, -21.481094360351562, -7.119277477264404, 1.6736912727355957, -5.7008957862854, 2.035928964614868, -1.6316860914230347, -1.1770312786102295, -0.9550244212150574, -0.18325810134410858, -1.4232946634292603, -1.3497600555419922, 1.029981255531311, 1.7085126638412476, -0.5523813962936401, 1.5172135829925537, 0.19397741556167603, 1.9331244230270386, -1.8313881158828735, 0.9432632923126221, -0.7786942720413208, -1.0642881393432617, 4.530212879180908, 0.7698496580123901, 0.019883491098880768, -12.124160766601562, -0.8149113059043884, 2.9931671619415283, -0.8459615707397461, -0.10629931092262268, -0.11796557158231735, 1.010083556175232, -1.88119637966156, -0.21855314075946808, 3.0293262004852295, -0.6877342462539673, 0.7061011791229248, 1.3937216997146606, -1.110660433769226, 1.1494746208190918, 0.7028483748435974, 1.3373174667358398, -0.35622990131378174, 0.5667258501052856, -0.5718091726303101, -0.26736190915107727, -2.861546039581299, 0.6902316212654114, -0.25620120763778687, -1.818901538848877, -0.6561939716339111, 1.0967397689819336, -0.29924479126930237, 0.08078838139772415, -1.2264355421066284, -0.24791111052036285, -0.53566974401474, -0.9181060791015625, 6.354890823364258, 0.4879756271839142, -0.20310883224010468, -0.2794080674648285, -0.43275463581085205, 1.060376763343811, -0.6223883032798767, 0.5135666131973267, -1.1490007638931274, -0.24003838002681732, -0.2985818684101105, };
           float bias4[] = {0.5818918943405151, -1.7449966669082642, -0.7387481927871704, 0.23773466050624847, -0.9317651987075806, -1.2941128015518188, -0.9901083707809448, 0.0766955241560936, 0.24392539262771606, 0.35044828057289124, 0.0546637699007988, -0.19502535462379456, };
           linear6 = Linear<float>(12, 12, weight4, bias4);
           softplus7 = Softplus<float>();
           float weight6[] = {-0.0005878937663510442, -0.004231155384331942, 0.000824367452878505, 0.0002255228318972513, -0.0003592903376556933, 0.0002943777071777731, -0.0004401258775033057, -0.0014584602322429419, -0.036672160029411316, 0.0009733508923090994, 0.0005300975753925741, -0.0003659238282125443, -0.0009028092608787119, -0.011196216568350792, 0.0016559624345973134, 0.0002456498332321644, 7.165177521528676e-05, -0.0002934756630565971, 0.00298421666957438, -0.003182248445227742, -0.0381876565515995, 0.0022560851648449898, 0.00026054627960547805, -0.00013605889398604631, -0.4356619119644165, 0.016686810180544853, 0.028655560687184334, 0.13873454928398132, -0.04896913096308708, -0.39693012833595276, -1.0802192687988281, -1.0126694440841675, 7.252085208892822, 0.9812448024749756, 0.19670531153678894, 0.008424973115324974, -0.00020461507665459067, -0.008595761843025684, 0.0006236168555915356, -4.0433228605252225e-06, -0.00020305374346207827, 0.00042385474080219865, 0.00038121434045024216, -0.0013947325060144067, 0.0405697338283062, 0.0007127105491235852, 8.8717439211905e-05, 0.00010586305143078789, -0.0009115605498664081, -0.00953493919223547, 0.001327351201325655, 0.00025855511194095016, -8.886327123036608e-06, -0.00018532134708948433, 0.002787751378491521, -0.0030405630823224783, -0.055528465658426285, 0.002251832513138652, 0.0002568204654380679, -9.72225097939372e-05, 0.10604484379291534, -0.01176708098500967, -0.47826823592185974, -0.05144335329532623, -0.0015050750225782394, -0.6857179999351501, 0.4461642801761627, 0.374900758266449, 9.457228660583496, -0.12813609838485718, -0.1422102153301239, 0.17424122989177704, -36.38809585571289, -113.72476959228516, -58.10633850097656, -95.32972717285156, -0.2005026787519455, -0.06911923736333847, -27.086088180541992, -128.3422088623047, -31.788602828979492, -22.08185386657715, 1.0002835988998413, -1.2162686586380005, -36.494468688964844, -113.90065002441406, -60.59833908081055, -90.75527954101562, -0.19458387792110443, -0.0582909919321537, -28.703323364257812, -134.00828552246094, -29.757144927978516, -23.705886840820312, 0.9820342063903809, -1.197885274887085, -23.41737174987793, -19.197275161743164, -38.61685562133789, -74.6834945678711, -5.727524280548096, -0.31056341528892517, 26.195545196533203, -125.8548812866211, -84.80242156982422, -24.213878631591797, 1.713507056236267, -1.9440134763717651, -51.91859436035156, -114.20065307617188, -58.56238555908203, -89.57975769042969, -0.2763732671737671, -0.08821610361337662, -25.089292526245117, -129.4701690673828, -58.352603912353516, -23.39978790283203, 1.1276395320892334, -1.3088046312332153, -52.541015625, -114.34825897216797, -59.36514663696289, -88.65222930908203, -0.27232667803764343, -0.07453683763742447, -24.64121437072754, -128.9096221923828, -55.54694747924805, -24.481056213378906, 1.1191699504852295, -1.2974591255187988, -38.214603424072266, -31.342763900756836, -24.912330627441406, -47.59731674194336, -5.869600772857666, 0.11897672712802887, 18.397565841674805, -76.89179229736328, -136.06192016601562, -32.69841766357422, 2.246751308441162, -2.2161810398101807, };
           float bias6[] = {2.633797521411907e-06, 8.345237802132033e-06, 0.0005437726504169405, 1.098252869269345e-05, 5.96514701101114e-06, 1.0005340576171875, -2.2524349689483643, -2.2401270866394043, -3.376300573348999, -2.3166606426239014, -2.3273978233337402, -5.593528747558594, };
           linear8 = Linear<float>(12, 12, weight6, bias6);
        }

        __device__
        void operator()(float* input, float* output)
        {
            float temp_output0[12];
            linear2(input, temp_output0);
            float temp_output1[12];
            softplus3(temp_output0, temp_output1, 12);
            float temp_output2[12];
            linear4(temp_output1, temp_output2);
            float temp_output3[12];
            softplus5(temp_output2, temp_output3, 12);
            float temp_output4[12];
            linear6(temp_output3, temp_output4);
            float temp_output5[12];
            softplus7(temp_output4, temp_output5, 12);
            float temp_output6[12];
            linear8(temp_output5, output);
        }

        private:
        Linear<float> linear2;
        Softplus<float> softplus3;
        Linear<float> linear4;
        Softplus<float> softplus5;
        Linear<float> linear6;
        Softplus<float> softplus7;
        Linear<float> linear8;
    }; // class
} // namespace cunet